digraph Tree {
node [shape=box, style="filled, rounded", color="black", fontname=helvetica] ;
edge [fontname=helvetica] ;
0 [label="age <= 0.5\nentropy = 0.971\nsamples = 20\nvalue = [8, 12]\nclass = buying", fillcolor="#bddef6"] ;
1 [label="entropy = 0.0\nsamples = 6\nvalue = [0, 6]\nclass = buying", fillcolor="#399de5"] ;
0 -> 1 [labeldistance=2.5, labelangle=45, headlabel="True"] ;
2 [label="student <= 0.5\nentropy = 0.985\nsamples = 14\nvalue = [8, 6]\nclass = not buying", fillcolor="#f8e0ce"] ;
0 -> 2 [labeldistance=2.5, labelangle=-45, headlabel="False"] ;
3 [label="entropy = 0.544\nsamples = 8\nvalue = [7, 1]\nclass = not buying", fillcolor="#e99355"] ;
2 -> 3 ;
4 [label="entropy = 0.65\nsamples = 6\nvalue = [1, 5]\nclass = buying", fillcolor="#61b1ea"] ;
2 -> 4 ;
}